Language model created by QuickLM on Sat May 12 09:21:43 EDT 2018
Copyright (c) 1996-2010 Carnegie Mellon University and Alexander I. Rudnicky

The model is in standard ARPA format, designed by Doug Paul while he was at MITRE.

The code that was used to produce this language model is available in Open Source.
Please visit http://www.speech.cs.cmu.edu/tools/ for more information

The (fixed) discount mass is 0.5. The backoffs are computed using the ratio method.
This model based on a corpus of 21 sentences and 63 words

\data\
ngram 1=63
ngram 2=83
ngram 3=68

\1-grams:
-1.0241 </s> -0.3010
-1.0241 <s> -0.2579
-2.3464 A -0.2991
-2.3464 ALARM -0.2579
-2.0453 AM -0.2971
-2.3464 AN -0.2991
-1.5682 CHECK -0.2891
-2.3464 CLIENTS -0.2991
-2.3464 CONNECTED -0.2579
-2.0453 CURRENT -0.2971
-2.3464 CURRENTLY -0.2991
-2.3464 EIGHT -0.2991
-2.3464 EIGHTEEN -0.2991
-2.3464 ELEVEN -0.2991
-2.3464 EMAIL -0.2579
-2.3464 EVENTS -0.2579
-2.3464 FIFTEEN -0.2991
-2.3464 FIFTY -0.2991
-2.3464 FIVE -0.2991
-2.3464 FOR -0.2579
-2.3464 FORTY -0.2991
-2.3464 FOUR -0.2991
-2.3464 FOURTEEN -0.2991
-2.3464 HEY -0.2579
-2.3464 HISTORY -0.2579
-2.3464 I -0.2579
-2.3464 IS -0.2991
-2.3464 LARRY -0.2579
-2.3464 LOCATION -0.2579
-2.3464 MARK -0.2579
-2.3464 MUSIC -0.2579
-2.3464 NINE -0.2991
-2.3464 NINETEEN -0.2991
-2.3464 O'CLOCK -0.2971
-2.3464 ONE -0.2991
-2.3464 PENDEJADA -0.2579
-2.3464 PLAY -0.2991
-2.3464 PM -0.2579
-2.3464 SEARCH -0.2991
-2.3464 SEND -0.2991
-2.0453 SET -0.2971
-2.3464 SEVEN -0.2991
-2.3464 SEVENTEEN -0.2991
-2.3464 SIX -0.2991
-2.3464 SIXTEEN -0.2991
-2.3464 SIXTY -0.2579
-2.3464 SOME -0.2991
-2.3464 TEN -0.2579
-2.3464 THIRTEEN -0.2991
-2.3464 THIRTY -0.2991
-2.3464 THREE -0.2991
-2.3464 TIMER -0.2579
-2.3464 TRAFFIC -0.2579
-2.3464 TWELVE -0.2991
-2.3464 TWENTY -0.2579
-2.3464 TWO -0.2991
-2.3464 USER -0.2991
-2.3464 USING -0.2991
-2.3464 WEATHER -0.2579
-2.3464 WEB -0.2991
-2.3464 WHERE -0.2971
-2.3464 WHO -0.2991
-2.3464 YOU -0.2579

\2-grams:
-0.8451 <s> CHECK 0.0000
-1.6232 <s> ELEVEN 0.0000
-1.6232 <s> HEY 0.0000
-1.6232 <s> LARRY 0.0000
-1.6232 <s> MARK 0.0000
-1.6232 <s> O'CLOCK 0.0000
-1.6232 <s> ONE 0.0000
-1.6232 <s> PENDEJADA 0.0000
-1.6232 <s> PLAY 0.0000
-1.6232 <s> SEARCH 0.0000
-1.6232 <s> SEND 0.0000
-1.3222 <s> SET 0.0000
-1.6232 <s> THIRTY 0.0000
-1.6232 <s> WHERE 0.0000
-1.6232 <s> WHO 0.0000
-0.3010 A TIMER 0.0000
-0.3010 ALARM </s> -0.3010
-0.6021 AM I 0.0000
-0.6021 AM PM 0.0000
-0.3010 AN ALARM 0.0000
-1.0792 CHECK CLIENTS 0.0000
-0.7782 CHECK CURRENT 0.0000
-1.0792 CHECK HISTORY 0.0000
-1.0792 CHECK TRAFFIC 0.0000
-1.0792 CHECK USER 0.0000
-0.3010 CLIENTS CURRENTLY 0.0000
-0.3010 CONNECTED </s> -0.3010
-0.6021 CURRENT EVENTS 0.0000
-0.6021 CURRENT WEATHER 0.0000
-0.3010 CURRENTLY CONNECTED 0.0000
-0.3010 EIGHT NINE 0.0000
-0.3010 EIGHTEEN NINETEEN 0.0000
-0.3010 ELEVEN TWELVE 0.0000
-0.3010 EMAIL </s> -0.3010
-0.3010 EVENTS </s> -0.3010
-0.3010 FIFTEEN SIXTEEN 0.0000
-0.3010 FIFTY SIXTY 0.0000
-0.3010 FIVE SIX 0.0000
-0.3010 FOR </s> -0.3010
-0.3010 FORTY FIFTY 0.0000
-0.3010 FOUR FIVE 0.0000
-0.3010 FOURTEEN FIFTEEN 0.0000
-0.3010 HEY </s> -0.3010
-0.3010 HISTORY </s> -0.3010
-0.3010 I </s> -0.3010
-0.3010 IS USING 0.0000
-0.3010 LARRY </s> -0.3010
-0.3010 LOCATION </s> -0.3010
-0.3010 MARK </s> -0.3010
-0.3010 MUSIC </s> -0.3010
-0.3010 NINE TEN 0.0000
-0.3010 NINETEEN TWENTY 0.0000
-0.3010 O'CLOCK AM -0.1761
-0.3010 ONE TWO 0.0000
-0.3010 PENDEJADA </s> -0.3010
-0.3010 PLAY SOME 0.0000
-0.3010 PM </s> -0.3010
-0.3010 SEARCH WEB 0.0000
-0.3010 SEND EMAIL 0.0000
-0.6021 SET A 0.0000
-0.6021 SET AN 0.0000
-0.3010 SEVEN EIGHT 0.0000
-0.3010 SEVENTEEN EIGHTEEN 0.0000
-0.3010 SIX SEVEN 0.0000
-0.3010 SIXTEEN SEVENTEEN 0.0000
-0.3010 SIXTY </s> -0.3010
-0.3010 SOME MUSIC 0.0000
-0.3010 TEN </s> -0.3010
-0.3010 THIRTEEN FOURTEEN 0.0000
-0.3010 THIRTY FORTY 0.0000
-0.3010 THREE FOUR 0.0000
-0.3010 TIMER </s> -0.3010
-0.3010 TRAFFIC </s> -0.3010
-0.3010 TWELVE THIRTEEN 0.0000
-0.3010 TWENTY </s> -0.3010
-0.3010 TWO THREE 0.0000
-0.3010 USER LOCATION 0.0000
-0.3010 USING YOU 0.0000
-0.3010 WEATHER </s> -0.3010
-0.3010 WEB FOR 0.0000
-0.3010 WHERE AM -0.1761
-0.3010 WHO IS 0.0000
-0.3010 YOU </s> -0.3010

\3-grams:
-1.0792 <s> CHECK CLIENTS
-0.7782 <s> CHECK CURRENT
-1.0792 <s> CHECK HISTORY
-1.0792 <s> CHECK TRAFFIC
-1.0792 <s> CHECK USER
-0.3010 <s> ELEVEN TWELVE
-0.3010 <s> HEY </s>
-0.3010 <s> LARRY </s>
-0.3010 <s> MARK </s>
-0.3010 <s> O'CLOCK AM
-0.3010 <s> ONE TWO
-0.3010 <s> PENDEJADA </s>
-0.3010 <s> PLAY SOME
-0.3010 <s> SEARCH WEB
-0.3010 <s> SEND EMAIL
-0.6021 <s> SET A
-0.6021 <s> SET AN
-0.3010 <s> THIRTY FORTY
-0.3010 <s> WHERE AM
-0.3010 <s> WHO IS
-0.3010 A TIMER </s>
-0.3010 AM I </s>
-0.3010 AM PM </s>
-0.3010 AN ALARM </s>
-0.3010 CHECK CLIENTS CURRENTLY
-0.6021 CHECK CURRENT EVENTS
-0.6021 CHECK CURRENT WEATHER
-0.3010 CHECK HISTORY </s>
-0.3010 CHECK TRAFFIC </s>
-0.3010 CHECK USER LOCATION
-0.3010 CLIENTS CURRENTLY CONNECTED
-0.3010 CURRENT EVENTS </s>
-0.3010 CURRENT WEATHER </s>
-0.3010 CURRENTLY CONNECTED </s>
-0.3010 EIGHT NINE TEN
-0.3010 EIGHTEEN NINETEEN TWENTY
-0.3010 ELEVEN TWELVE THIRTEEN
-0.3010 FIFTEEN SIXTEEN SEVENTEEN
-0.3010 FIFTY SIXTY </s>
-0.3010 FIVE SIX SEVEN
-0.3010 FORTY FIFTY SIXTY
-0.3010 FOUR FIVE SIX
-0.3010 FOURTEEN FIFTEEN SIXTEEN
-0.3010 IS USING YOU
-0.3010 NINE TEN </s>
-0.3010 NINETEEN TWENTY </s>
-0.3010 O'CLOCK AM PM
-0.3010 ONE TWO THREE
-0.3010 PLAY SOME MUSIC
-0.3010 SEARCH WEB FOR
-0.3010 SEND EMAIL </s>
-0.3010 SET A TIMER
-0.3010 SET AN ALARM
-0.3010 SEVEN EIGHT NINE
-0.3010 SEVENTEEN EIGHTEEN NINETEEN
-0.3010 SIX SEVEN EIGHT
-0.3010 SIXTEEN SEVENTEEN EIGHTEEN
-0.3010 SOME MUSIC </s>
-0.3010 THIRTEEN FOURTEEN FIFTEEN
-0.3010 THIRTY FORTY FIFTY
-0.3010 THREE FOUR FIVE
-0.3010 TWELVE THIRTEEN FOURTEEN
-0.3010 TWO THREE FOUR
-0.3010 USER LOCATION </s>
-0.3010 USING YOU </s>
-0.3010 WEB FOR </s>
-0.3010 WHERE AM I
-0.3010 WHO IS USING

\end\
